<?xml version="1.0"?>
<opencv_storage>
<cascade>
  <stageType>BOOST</stageType>
  <featureType>LBP</featureType>
  <height>24</height>
  <width>24</width>
  <stageParams>
    <boostType>GAB</boostType>
    <minHitRate>9.9500000476837158e-01</minHitRate>
    <maxFalseAlarm>5.0000000000000000e-01</maxFalseAlarm>
    <weightTrimRate>9.4999998807907104e-01</weightTrimRate>
    <maxDepth>1</maxDepth>
    <maxWeakCount>100</maxWeakCount></stageParams>
  <featureParams>
    <maxCatCount>256</maxCatCount>
    <featSize>1</featSize></featureParams>
  <stageNum>11</stageNum>
  <stages>
    <!-- stage 0 -->
    <_>
      <maxWeakCount>2</maxWeakCount>
      <stageThreshold>-2.5931644439697266e-01</stageThreshold>
      <weakClassifiers>
        <_>
          <internalNodes>
            0 -1 5 -681706017 -545828465 -650931379 -8957035 -1146373121
            -5533045 -376702497 -8257</internalNodes>
          <leafValues>
            -9.6593189239501953e-01 8.0104714632034302e-01</leafValues></_>
        <_>
          <internalNodes>
            0 -1 20 -581608097 -11021411 -79187521 -8153699 -274993441
            -1324133 -91488257 -3146273</internalNodes>
          <leafValues>
            -9.6655851602554321e-01 7.0661544799804688e-01</leafValues></_></weakClassifiers></_>
    <!-- stage 1 -->
    <_>
      <maxWeakCount>2</maxWeakCount>
      <stageThreshold>-2.1991924941539764e-01</stageThreshold>
      <weakClassifiers>
        <_>
          <internalNodes>
            0 -1 14 -136314881 -4221153 -622989313 -6445633 -919697458
            -1346204193 -71311429 -1793</internalNodes>
          <leafValues>
            -9.7757393121719360e-01 7.1153843402862549e-01</leafValues></_>
        <_>
          <internalNodes>
            0 -1 22 -1 -548933121 2119957999 -5245089 -72617549
            -1081880117 -643040837 -4195329</internalNodes>
          <leafValues>
            -9.3145769834518433e-01 8.0405694246292114e-01</leafValues></_></weakClassifiers></_>
    <!-- stage 2 -->
    <_>
      <maxWeakCount>2</maxWeakCount>
      <stageThreshold>-3.2231107354164124e-01</stageThreshold>
      <weakClassifiers>
        <_>
          <internalNodes>
            0 -1 10 -419504129 -4271137 -168821761 -74254453 -5603841
            -3425361 -68554785 -1182209</internalNodes>
          <leafValues>
            -9.6322780847549438e-01 6.2857145071029663e-01</leafValues></_>
        <_>
          <internalNodes>
            0 -1 27 -67125433 -168829601 -506069057 -286274691
            2071974751 -270534161 -75498629 -25428097</internalNodes>
          <leafValues>
            -9.4707661867141724e-01 6.4091670513153076e-01</leafValues></_></weakClassifiers></_>
    <!-- stage 3 -->
    <_>
      <maxWeakCount>3</maxWeakCount>
      <stageThreshold>-1.2386626005172729e+00</stageThreshold>
      <weakClassifiers>
        <_>
          <internalNodes>
            0 -1 18 -2097153 -738726705 -1273264649 -136315953
            -930618949 -1597254181 -103810385 -1052797</internalNodes>
          <leafValues>
            -9.1287511587142944e-01 8.4615385532379150e-01</leafValues></_>
        <_>
          <internalNodes>
            0 -1 12 1577058303 -705048141 -1744833729 -788296483
            -677119589 -1079787061 -7624865 -537145859</internalNodes>
          <leafValues>
            -9.4921553134918213e-01 6.4250975847244263e-01</leafValues></_>
        <_>
          <internalNodes>
            0 -1 2 -410848257 -142871600 -753181699 -11278269 1283709951
            -369675493 -808518929 -71111489</internalNodes>
          <leafValues>
            -9.6829724311828613e-01 6.2947261333465576e-01</leafValues></_></weakClassifiers></_>
    <!-- stage 4 -->
    <_>
      <maxWeakCount>3</maxWeakCount>
      <stageThreshold>-1.2820647954940796e+00</stageThreshold>
      <weakClassifiers>
        <_>
          <internalNodes>
            0 -1 6 -168167937 -69479429 -574562305 -167910949
            -1684164609 -1726443329 -89588801 -257</internalNodes>
          <leafValues>
            -9.3034827709197998e-01 6.7391306161880493e-01</leafValues></_>
        <_>
          <internalNodes>
            0 -1 15 -67654929 -212487241 -2049726841 -672446068
            -236195429 -73801696 -791813 -536883202</internalNodes>
          <leafValues>
            -9.4275164604187012e-01 5.5167490243911743e-01</leafValues></_>
        <_>
          <internalNodes>
            0 -1 17 -1611926529 -1558621089 277336799 1273711359
            990294523 -393490034 315341566 -2381078</internalNodes>
          <leafValues>
            -9.0339136123657227e-01 7.0364534854888916e-01</leafValues></_></weakClassifiers></_>
    <!-- stage 5 -->
    <_>
      <maxWeakCount>3</maxWeakCount>
      <stageThreshold>-1.1906144618988037e+00</stageThreshold>
      <weakClassifiers>
        <_>
          <internalNodes>
            0 -1 25 -715130881 -107233270 -1068109592 -570568241
            -149963781 -1473598590 -96740129 -1281</internalNodes>
          <leafValues>
            -9.1406250000000000e-01 7.5757575035095215e-01</leafValues></_>
        <_>
          <internalNodes>
            0 -1 7 -1923088931 -1610899467 -1718421505 -2726415
            -33967156 -37763169 -369426433 -262165</internalNodes>
          <leafValues>
            -9.4782477617263794e-01 6.1943328380584717e-01</leafValues></_>
        <_>
          <internalNodes>
            0 -1 3 1978653183 -672140829 -191772289 1605325351
            -266738977 -131109755 -1626280993 -13676881</internalNodes>
          <leafValues>
            -9.3426728248596191e-01 6.7127287387847900e-01</leafValues></_></weakClassifiers></_>
    <!-- stage 6 -->
    <_>
      <maxWeakCount>3</maxWeakCount>
      <stageThreshold>-1.2150281667709351e+00</stageThreshold>
      <weakClassifiers>
        <_>
          <internalNodes>
            0 -1 7 -14417923 -4380677 -283479041 -34348867 -73663492
            -1170797 -329473 -67507794</internalNodes>
          <leafValues>
            -9.2792791128158569e-01 6.1052632331848145e-01</leafValues></_>
        <_>
          <internalNodes>
            0 -1 19 -50855939 -619626471 360978911 -16307751 -1146487873
            -1146575620 -644744712 -1913025635</internalNodes>
          <leafValues>
            -9.2240768671035767e-01 6.6064035892486572e-01</leafValues></_>
        <_>
          <internalNodes>
            0 -1 4 -270860801 -807495203 520220031 2104779097 -909377893
            -360419200 2007700175 -4250897</internalNodes>
          <leafValues>
            -9.0314680337905884e-01 6.4008486270904541e-01</leafValues></_></weakClassifiers></_>
    <!-- stage 7 -->
    <_>
      <maxWeakCount>3</maxWeakCount>
      <stageThreshold>-1.3606007099151611e+00</stageThreshold>
      <weakClassifiers>
        <_>
          <internalNodes>
            0 -1 16 -572522497 -639651889 -196008969 -170536450
            -536870981 -204221525 -67114053 -134217761</internalNodes>
          <leafValues>
            -9.4892746210098267e-01 5.6190478801727295e-01</leafValues></_>
        <_>
          <internalNodes>
            0 -1 8 -12912641 -149163577 1637020223 2033866203 -92079105
            1560008251 -68170005 -5185</internalNodes>
          <leafValues>
            -9.3056493997573853e-01 5.2765220403671265e-01</leafValues></_>
        <_>
          <internalNodes>
            0 -1 23 -16395 1408218877 1447097848 256227761 -640686929
            1351084730 -370410789 -1184769</internalNodes>
          <leafValues>
            -9.3932539224624634e-01 6.1977744102478027e-01</leafValues></_></weakClassifiers></_>
    <!-- stage 8 -->
    <_>
      <maxWeakCount>3</maxWeakCount>
      <stageThreshold>-1.1868402957916260e+00</stageThreshold>
      <weakClassifiers>
        <_>
          <internalNodes>
            0 -1 13 -4721665 -203435025 -747023521 -741086279 -615776257
            -70456597 -6816001 -18089993</internalNodes>
          <leafValues>
            -9.0058481693267822e-01 6.9325155019760132e-01</leafValues></_>
        <_>
          <internalNodes>
            0 -1 0 -216048129 -35951689 1573279454 -71122306 -374677505
            -2449248 1068236799 -4742637</internalNodes>
          <leafValues>
            -9.2517435550689697e-01 5.6748181581497192e-01</leafValues></_>
        <_>
          <internalNodes>
            0 -1 11 -1152122913 -525313 -146157261 -236990625
            -1613068801 -1431195181 -69487833 -539100193</internalNodes>
          <leafValues>
            -8.5373729467391968e-01 7.2094845771789551e-01</leafValues></_></weakClassifiers></_>
    <!-- stage 9 -->
    <_>
      <maxWeakCount>3</maxWeakCount>
      <stageThreshold>-1.2176783084869385e+00</stageThreshold>
      <weakClassifiers>
        <_>
          <internalNodes>
            0 -1 24 -546835457 -2628946 -873345595 -547884977 -12193541
            1160836296 -9176390 -67109137</internalNodes>
          <leafValues>
            -9.1591590642929077e-01 5.4736840724945068e-01</leafValues></_>
        <_>
          <internalNodes>
            0 -1 21 -67108875 -143134593 -157854721 -3151169 -153223969
            -660895831 -897193217 -3413057</internalNodes>
          <leafValues>
            -8.5764217376708984e-01 7.0099121332168579e-01</leafValues></_>
        <_>
          <internalNodes>
            0 -1 1 -1700996097 -539765865 -1789806081 -285075158
            -1383391745 -35878849 -1433826321 -269058261</internalNodes>
          <leafValues>
            -9.0740460157394409e-01 6.7047756910324097e-01</leafValues></_></weakClassifiers></_>
    <!-- stage 10 -->
    <_>
      <maxWeakCount>3</maxWeakCount>
      <stageThreshold>-1.2829341888427734e+00</stageThreshold>
      <weakClassifiers>
        <_>
          <internalNodes>
            0 -1 28 -746586113 -606383137 -855051294 -639649063
            -74451265 -1016022361 -71310457 -136314897</internalNodes>
          <leafValues>
            -9.4398337602615356e-01 4.3999999761581421e-01</leafValues></_>
        <_>
          <internalNodes>
            0 -1 26 -136317973 -303971925 -45523982 -2104513 -81265669
            -2120116567 -203426845 -823135269</internalNodes>
          <leafValues>
            -9.2532038688659668e-01 5.3735047578811646e-01</leafValues></_>
        <_>
          <internalNodes>
            0 -1 9 -143392773 -69217289 -80096957 -537144963 -201355314
            -572813321 -17379457 -537139781</internalNodes>
          <leafValues>
            -9.5160377025604248e-01 5.8636951446533203e-01</leafValues></_></weakClassifiers></_></stages>
  <features>
    <_>
      <rect>
        3 13 3 1</rect></_>
    <_>
      <rect>
        4 17 4 1</rect></_>
    <_>
      <rect>
        5 3 3 4</rect></_>
    <_>
      <rect>
        5 7 3 2</rect></_>
    <_>
      <rect>
        6 6 2 1</rect></_>
    <_>
      <rect>
        6 6 5 4</rect></_>
    <_>
      <rect>
        6 10 4 2</rect></_>
    <_>
      <rect>
        6 10 5 2</rect></_>
    <_>
      <rect>
        6 14 2 2</rect></_>
    <_>
      <rect>
        7 10 3 3</rect></_>
    <_>
      <rect>
        7 16 2 1</rect></_>
    <_>
      <rect>
        8 3 2 4</rect></_>
    <_>
      <rect>
        8 5 2 5</rect></_>
    <_>
      <rect>
        8 10 3 2</rect></_>
    <_>
      <rect>
        8 10 3 3</rect></_>
    <_>
      <rect>
        9 7 2 4</rect></_>
    <_>
      <rect>
        10 6 4 4</rect></_>
    <_>
      <rect>
        10 9 2 1</rect></_>
    <_>
      <rect>
        11 6 1 3</rect></_>
    <_>
      <rect>
        11 17 3 1</rect></_>
    <_>
      <rect>
        12 2 2 4</rect></_>
    <_>
      <rect>
        12 5 2 2</rect></_>
    <_>
      <rect>
        12 7 3 4</rect></_>
    <_>
      <rect>
        13 11 1 3</rect></_>
    <_>
      <rect>
        15 11 1 3</rect></_>
    <_>
      <rect>
        16 12 1 2</rect></_>
    <_>
      <rect>
        16 13 1 1</rect></_>
    <_>
      <rect>
        17 5 1 3</rect></_>
    <_>
      <rect>
        17 13 1 1</rect></_></features></cascade>
</opencv_storage>
