<?xml version="1.0"?>
<opencv_storage>
<cascade>
  <stageType>BOOST</stageType>
  <featureType>LBP</featureType>
  <height>24</height>
  <width>24</width>
  <stageParams>
    <boostType>GAB</boostType>
    <minHitRate>9.9500000476837158e-01</minHitRate>
    <maxFalseAlarm>5.0000000000000000e-01</maxFalseAlarm>
    <weightTrimRate>9.4999998807907104e-01</weightTrimRate>
    <maxDepth>1</maxDepth>
    <maxWeakCount>100</maxWeakCount></stageParams>
  <featureParams>
    <maxCatCount>256</maxCatCount>
    <featSize>1</featSize></featureParams>
  <stageNum>9</stageNum>
  <stages>
    <!-- stage 0 -->
    <_>
      <maxWeakCount>2</maxWeakCount>
      <stageThreshold>-1.0904522985219955e-01</stageThreshold>
      <weakClassifiers>
        <_>
          <internalNodes>
            0 -1 1 -610807809 -68475001 -175912993 -33979425 -1724319233
            -542490353 -4588289 -2097157</internalNodes>
          <leafValues>
            -9.6770936250686646e-01 8.3660131692886353e-01</leafValues></_>
        <_>
          <internalNodes>
            0 -1 18 -573319169 -336077905 -336357921 -6292113 -220209393
            -410665816 -626398209 -1053697</internalNodes>
          <leafValues>
            -9.4564652442932129e-01 8.8246750831604004e-01</leafValues></_></weakClassifiers></_>
    <!-- stage 1 -->
    <_>
      <maxWeakCount>3</maxWeakCount>
      <stageThreshold>-1.0407780408859253e+00</stageThreshold>
      <weakClassifiers>
        <_>
          <internalNodes>
            0 -1 4 -201326609 -537920633 -203571205 -3713 -134743057
            -7606527 -8652565 -1049729</internalNodes>
          <leafValues>
            -9.7357726097106934e-01 8.1469649076461792e-01</leafValues></_>
        <_>
          <internalNodes>
            0 -1 6 -206045185 -318846145 -157689489 -1074334729
            -71960577 -337911809 -2106945 -65</internalNodes>
          <leafValues>
            -9.3495589494705200e-01 8.5605484247207642e-01</leafValues></_>
        <_>
          <internalNodes>
            0 -1 17 -536870913 -2368065 -329387009 -537002241 -13107391
            -34747522 -340787345 -1048833</internalNodes>
          <leafValues>
            -9.2325562238693237e-01 9.2443060874938965e-01</leafValues></_></weakClassifiers></_>
    <!-- stage 2 -->
    <_>
      <maxWeakCount>2</maxWeakCount>
      <stageThreshold>-1.4353331923484802e-01</stageThreshold>
      <weakClassifiers>
        <_>
          <internalNodes>
            0 -1 12 -704643105 -674013313 -795419169 -4195885
            -1913022277 -13899109 -1178878977 -67110145</internalNodes>
          <leafValues>
            -9.3491125106811523e-01 8.6572438478469849e-01</leafValues></_>
        <_>
          <internalNodes>
            0 -1 3 -1056769 -408468725 -778701985 -538976265 -2305
            -71252606 -33030833 -3146885</internalNodes>
          <leafValues>
            -9.6945148706436157e-01 7.9137790203094482e-01</leafValues></_></weakClassifiers></_>
    <!-- stage 3 -->
    <_>
      <maxWeakCount>2</maxWeakCount>
      <stageThreshold>-2.2093729674816132e-01</stageThreshold>
      <weakClassifiers>
        <_>
          <internalNodes>
            0 -1 0 -426450945 -77983305 -1653558017 -12680209
            -1931167809 -4292210 1375980543 -24597</internalNodes>
          <leafValues>
            -9.6926230192184448e-01 7.5700932741165161e-01</leafValues></_>
        <_>
          <internalNodes>
            0 -1 13 -536870913 -69511209 -183516705 -67254277 -6686786
            -1617169993 -52446545 -1080050245</internalNodes>
          <leafValues>
            -9.7593855857849121e-01 7.4832499027252197e-01</leafValues></_></weakClassifiers></_>
    <!-- stage 4 -->
    <_>
      <maxWeakCount>2</maxWeakCount>
      <stageThreshold>-1.8306910991668701e-01</stageThreshold>
      <weakClassifiers>
        <_>
          <internalNodes>
            0 -1 10 -74189893 -4464197 1851904863 -138046523 -654095973
            -75382391 -217062677 -1393</internalNodes>
          <leafValues>
            -9.3762576580047607e-01 7.5577557086944580e-01</leafValues></_>
        <_>
          <internalNodes>
            0 -1 9 -548277251 -69607715 1061655807 -7888127 -104213508
            -72234067 -1414214 -30021</internalNodes>
          <leafValues>
            -9.3884468078613281e-01 7.7573305368423462e-01</leafValues></_></weakClassifiers></_>
    <!-- stage 5 -->
    <_>
      <maxWeakCount>2</maxWeakCount>
      <stageThreshold>-2.3787215352058411e-01</stageThreshold>
      <weakClassifiers>
        <_>
          <internalNodes>
            0 -1 14 -2228225 2111417067 -88413697 2143808491 -236459009
            -67309171 -1345082373 -2381077</internalNodes>
          <leafValues>
            -9.1115498542785645e-01 7.7464789152145386e-01</leafValues></_>
        <_>
          <internalNodes>
            0 -1 7 -111673425 -72621649 -1781868065 -113247393
            -202519601 -107310709 -136713489 -1029</internalNodes>
          <leafValues>
            -9.5579850673675537e-01 6.7328280210494995e-01</leafValues></_></weakClassifiers></_>
    <!-- stage 6 -->
    <_>
      <maxWeakCount>2</maxWeakCount>
      <stageThreshold>-2.5001963973045349e-01</stageThreshold>
      <weakClassifiers>
        <_>
          <internalNodes>
            0 -1 16 -137900033 -715685137 -1492970153 -203980341
            -489167617 -612126711 -229508113 -67108869</internalNodes>
          <leafValues>
            -9.2936426401138306e-01 7.1241831779479980e-01</leafValues></_>
        <_>
          <internalNodes>
            0 -1 2 -6817793 -66561 -249825969 -16846341 -457449733
            -1789751 -1987184837 -1</internalNodes>
          <leafValues>
            -9.4645923376083374e-01 6.7934465408325195e-01</leafValues></_></weakClassifiers></_>
    <!-- stage 7 -->
    <_>
      <maxWeakCount>2</maxWeakCount>
      <stageThreshold>-3.7685883045196533e-01</stageThreshold>
      <weakClassifiers>
        <_>
          <internalNodes>
            0 -1 11 -1654678241 1058344983 -720243233 -1109684003
            -121509377 -1716942447 -2004812837 -269489409</internalNodes>
          <leafValues>
            -9.6791446208953857e-01 5.5801105499267578e-01</leafValues></_>
        <_>
          <internalNodes>
            0 -1 8 -310509605 -170930838 -983710241 -546971697
            -1399919185 -66279808 -861024369 -2106134</internalNodes>
          <leafValues>
            -9.3486988544464111e-01 5.9535503387451172e-01</leafValues></_></weakClassifiers></_>
    <!-- stage 8 -->
    <_>
      <maxWeakCount>3</maxWeakCount>
      <stageThreshold>-1.3127847909927368e+00</stageThreshold>
      <weakClassifiers>
        <_>
          <internalNodes>
            0 -1 15 -524419 -38150919 -217844305 -591437889 -2000499787
            -355749713 -343151617 -5522757</internalNodes>
          <leafValues>
            -9.4230771064758301e-01 4.9584487080574036e-01</leafValues></_>
        <_>
          <internalNodes>
            0 -1 19 -4195889 -204237875 -640816425 -615001889 -336741777
            -1049906645 -214973713 -11801973</internalNodes>
          <leafValues>
            -8.9994907379150391e-01 6.2951409816741943e-01</leafValues></_>
        <_>
          <internalNodes>
            0 -1 5 -177340613 -656409187 -615518753 -622997035
            -1903562753 -24543050 -1450517005 -254558285</internalNodes>
          <leafValues>
            -9.0868055820465088e-01 6.4431238174438477e-01</leafValues></_></weakClassifiers></_></stages>
  <features>
    <_>
      <rect>
        1 14 4 2</rect></_>
    <_>
      <rect>
        4 11 4 2</rect></_>
    <_>
      <rect>
        4 15 2 2</rect></_>
    <_>
      <rect>
        5 8 3 3</rect></_>
    <_>
      <rect>
        5 10 3 2</rect></_>
    <_>
      <rect>
        6 8 6 3</rect></_>
    <_>
      <rect>
        6 15 1 1</rect></_>
    <_>
      <rect>
        7 10 2 2</rect></_>
    <_>
      <rect>
        8 5 3 4</rect></_>
    <_>
      <rect>
        8 15 4 2</rect></_>
    <_>
      <rect>
        9 8 1 2</rect></_>
    <_>
      <rect>
        10 14 4 1</rect></_>
    <_>
      <rect>
        11 9 2 3</rect></_>
    <_>
      <rect>
        11 10 3 3</rect></_>
    <_>
      <rect>
        11 14 2 2</rect></_>
    <_>
      <rect>
        12 13 4 3</rect></_>
    <_>
      <rect>
        13 9 1 3</rect></_>
    <_>
      <rect>
        13 10 1 1</rect></_>
    <_>
      <rect>
        13 11 2 2</rect></_>
    <_>
      <rect>
        15 14 1 1</rect></_></features></cascade>
</opencv_storage>
