<?xml version="1.0"?>
<opencv_storage>
<cascade>
  <stageType>BOOST</stageType>
  <featureType>LBP</featureType>
  <height>24</height>
  <width>24</width>
  <stageParams>
    <boostType>GAB</boostType>
    <minHitRate>9.9500000476837158e-01</minHitRate>
    <maxFalseAlarm>5.0000000000000000e-01</maxFalseAlarm>
    <weightTrimRate>9.4999998807907104e-01</weightTrimRate>
    <maxDepth>1</maxDepth>
    <maxWeakCount>100</maxWeakCount></stageParams>
  <featureParams>
    <maxCatCount>256</maxCatCount>
    <featSize>1</featSize></featureParams>
  <stageNum>17</stageNum>
  <stages>
    <!-- stage 0 -->
    <_>
      <maxWeakCount>2</maxWeakCount>
      <stageThreshold>-9.5307283103466034e-02</stageThreshold>
      <weakClassifiers>
        <_>
          <internalNodes>
            0 -1 11 -640753665 -545198690 -581711361 -797833 1094905855
            -5570582 -326396933 -13825</internalNodes>
          <leafValues>
            -9.6345180273056030e-01 8.9606297016143799e-01</leafValues></_>
        <_>
          <internalNodes>
            0 -1 48 -33554435 -76030315 -809384065 -6586401 -1345483331
            -275011107 -268451651 -515</internalNodes>
          <leafValues>
            -9.4670307636260986e-01 8.6814451217651367e-01</leafValues></_></weakClassifiers></_>
    <!-- stage 1 -->
    <_>
      <maxWeakCount>3</maxWeakCount>
      <stageThreshold>-1.0638610124588013e+00</stageThreshold>
      <weakClassifiers>
        <_>
          <internalNodes>
            0 -1 7 -681583137 -144980254 -643433473 -67906654 -17104897
            -543433501 -51419905 -1</internalNodes>
          <leafValues>
            -9.3522268533706665e-01 8.6075949668884277e-01</leafValues></_>
        <_>
          <internalNodes>
            0 -1 42 -327681 -1141572617 -1317024905 -1512517 -371458433
            -4464209 -72360481 -201729</internalNodes>
          <leafValues>
            -9.1223031282424927e-01 8.4105849266052246e-01</leafValues></_>
        <_>
          <internalNodes>
            0 -1 47 -2185 -16132193 -4743178 -23713 -152077449
            -285224961 -5832976 -135790635</internalNodes>
          <leafValues>
            -9.2904812097549438e-01 7.8359192609786987e-01</leafValues></_></weakClassifiers></_>
    <!-- stage 2 -->
    <_>
      <maxWeakCount>2</maxWeakCount>
      <stageThreshold>-1.0624546557664871e-01</stageThreshold>
      <weakClassifiers>
        <_>
          <internalNodes>
            0 -1 41 -1392529409 767295487 -522888385 -1342179329
            -40636421 -1091576865 -6304018 -409681</internalNodes>
          <leafValues>
            -8.9999997615814209e-01 7.8437501192092896e-01</leafValues></_>
        <_>
          <internalNodes>
            0 -1 31 -1077149713 -286803006 -141079036 -2622125
            -539788305 -34620681 -4456585 -6411</internalNodes>
          <leafValues>
            -8.7783652544021606e-01 7.9375451803207397e-01</leafValues></_></weakClassifiers></_>
    <!-- stage 3 -->
    <_>
      <maxWeakCount>2</maxWeakCount>
      <stageThreshold>-3.0201974511146545e-01</stageThreshold>
      <weakClassifiers>
        <_>
          <internalNodes>
            0 -1 0 -580911105 -2152784 -1055264289 -3 -1960709921
            -4259584 -211817537 -1025</internalNodes>
          <leafValues>
            -9.2553192377090454e-01 7.2058820724487305e-01</leafValues></_>
        <_>
          <internalNodes>
            0 -1 8 -14952481 -4197893 688489378 -2380896 -66060289
            -1477722881 -132916481 -7181</internalNodes>
          <leafValues>
            -9.4726973772048950e-01 6.2351214885711670e-01</leafValues></_></weakClassifiers></_>
    <!-- stage 4 -->
    <_>
      <maxWeakCount>3</maxWeakCount>
      <stageThreshold>-1.0894056558609009e+00</stageThreshold>
      <weakClassifiers>
        <_>
          <internalNodes>
            0 -1 33 -393311 -874560557 -769965945 -242514225 -90441073
            -791740286 -120338421 -1049605</internalNodes>
          <leafValues>
            -8.7659573554992676e-01 6.5294116735458374e-01</leafValues></_>
        <_>
          <internalNodes>
            0 -1 15 2080366559 1438405279 1363345424 497984694
            -1876036866 -1062798579 -538556141 -1049633</internalNodes>
          <leafValues>
            -8.5835689306259155e-01 6.4354842901229858e-01</leafValues></_>
        <_>
          <internalNodes>
            0 -1 16 -276041749 -1983134725 -994426869 1150113243
            -261492406 2046992585 -309474174 -282330865</internalNodes>
          <leafValues>
            -8.5635828971862793e-01 6.4834481477737427e-01</leafValues></_></weakClassifiers></_>
    <!-- stage 5 -->
    <_>
      <maxWeakCount>3</maxWeakCount>
      <stageThreshold>-1.0621080398559570e+00</stageThreshold>
      <weakClassifiers>
        <_>
          <internalNodes>
            0 -1 35 -84895745 -573505505 -1958526769 -571670465
            -1055161713 -1948549109 -1722840949 -71308657</internalNodes>
          <leafValues>
            -9.5017790794372559e-01 5.4182755947113037e-01</leafValues></_>
        <_>
          <internalNodes>
            0 -1 20 -978327157 -171183733 822185987 -716455797
            -2115403133 -1073348542 -2120905781 -271585109</internalNodes>
          <leafValues>
            -7.4071335792541504e-01 7.1899867057800293e-01</leafValues></_>
        <_>
          <internalNodes>
            0 -1 5 -207912233 -74350575 -251581693 1942422159
            -1987925061 -74956672 394507243 1943008131</internalNodes>
          <leafValues>
            -8.4632307291030884e-01 6.2878328561782837e-01</leafValues></_></weakClassifiers></_>
    <!-- stage 6 -->
    <_>
      <maxWeakCount>3</maxWeakCount>
      <stageThreshold>-9.6737337112426758e-01</stageThreshold>
      <weakClassifiers>
        <_>
          <internalNodes>
            0 -1 19 -552345601 -249984169 -1342046174 -739220073
            -1054215461 -400455551 -73511421 -17</internalNodes>
          <leafValues>
            -8.0942827463150024e-01 6.8539327383041382e-01</leafValues></_>
        <_>
          <internalNodes>
            0 -1 27 -785186347 -147832235 -1996098569 -135143145
            -777917511 -217988927 -912668421 -808867333</internalNodes>
          <leafValues>
            -7.7465045452117920e-01 6.9477033615112305e-01</leafValues></_>
        <_>
          <internalNodes>
            0 -1 22 -44042773 450884822 4293188 948953035 -762869525
            1661681810 -246686975 -17302857</internalNodes>
          <leafValues>
            -8.0042606592178345e-01 6.1670541763305664e-01</leafValues></_></weakClassifiers></_>
    <!-- stage 7 -->
    <_>
      <maxWeakCount>3</maxWeakCount>
      <stageThreshold>-1.1181154251098633e+00</stageThreshold>
      <weakClassifiers>
        <_>
          <internalNodes>
            0 -1 40 -247209985 -233602809 705110938 -87301382 -485916565
            268960287 -1425282370 -67129670</internalNodes>
          <leafValues>
            -8.2708334922790527e-01 6.2727272510528564e-01</leafValues></_>
        <_>
          <internalNodes>
            0 -1 12 1289656191 -33679906 1628924957 -225074 1217990847
            -1632108429 750848265 -335609702</internalNodes>
          <leafValues>
            -8.4318441152572632e-01 5.6969398260116577e-01</leafValues></_>
        <_>
          <internalNodes>
            0 -1 28 -810811999 -1845497513 -1056767985 -203566509
            -484211029 -1056653240 -1047169813 -1348500081</internalNodes>
          <leafValues>
            -8.4964978694915771e-01 5.5215233564376831e-01</leafValues></_></weakClassifiers></_>
    <!-- stage 8 -->
    <_>
      <maxWeakCount>3</maxWeakCount>
      <stageThreshold>-1.0215785503387451e+00</stageThreshold>
      <weakClassifiers>
        <_>
          <internalNodes>
            0 -1 23 -1810672161 -172932615 134306143 1442797919
            -1870492993 -1198194463 -1702257921 -538009</internalNodes>
          <leafValues>
            -8.0472767353057861e-01 6.2287479639053345e-01</leafValues></_>
        <_>
          <internalNodes>
            0 -1 32 -789194945 -774514659 -721321569 -2010758515
            -623512641 -121044845 -1618902897 -1464872261</internalNodes>
          <leafValues>
            -8.2031255960464478e-01 6.0743248462677002e-01</leafValues></_>
        <_>
          <internalNodes>
            0 -1 51 -370685782 -278981985 -2147318902 -1539151378
            1955557923 -74751837 -339221566 -477103105</internalNodes>
          <leafValues>
            -8.1190180778503418e-01 6.0346156358718872e-01</leafValues></_></weakClassifiers></_>
    <!-- stage 9 -->
    <_>
      <maxWeakCount>3</maxWeakCount>
      <stageThreshold>-1.0978358983993530e+00</stageThreshold>
      <weakClassifiers>
        <_>
          <internalNodes>
            0 -1 29 -1549536336 -272256830 -785800737 -44830269
            -209673985 -1820229472 -419170853 -3411317</internalNodes>
          <leafValues>
            -8.9705884456634521e-01 4.3781095743179321e-01</leafValues></_>
        <_>
          <internalNodes>
            0 -1 9 -69470209 1373459731 671293962 2060138367 -255703814
            1107837954 -1285837873 -66837</internalNodes>
          <leafValues>
            -7.3828899860382080e-01 6.3436317443847656e-01</leafValues></_>
        <_>
          <internalNodes>
            0 -1 46 -237026209 -35761123 25358551 -41336801 -1466391909
            -1197960736 -7602497 2064315119</internalNodes>
          <leafValues>
            -7.9735785722732544e-01 6.5296941995620728e-01</leafValues></_></weakClassifiers></_>
    <!-- stage 10 -->
    <_>
      <maxWeakCount>4</maxWeakCount>
      <stageThreshold>-6.7189347743988037e-01</stageThreshold>
      <weakClassifiers>
        <_>
          <internalNodes>
            0 -1 24 -2621441 1362641295 -2147348342 153100554 -262421585
            159584453 -125626328 -2097409</internalNodes>
          <leafValues>
            -8.6727690696716309e-01 5.0670242309570313e-01</leafValues></_>
        <_>
          <internalNodes>
            0 -1 38 -1294356481 -178941479 -1877880493 -180507309
            -670911525 -771223408 -938411880 -11820653</internalNodes>
          <leafValues>
            -8.6969798803329468e-01 4.7584617137908936e-01</leafValues></_>
        <_>
          <internalNodes>
            0 -1 21 -307235390 -318780990 1630781632 -177737257
            -2147314481 1929970187 -1860104533 -2100745</internalNodes>
          <leafValues>
            -8.6905896663665771e-01 4.8532387614250183e-01</leafValues></_>
        <_>
          <internalNodes>
            0 -1 2 395401693 -1076231683 17011199 -102623806 -1736408325
            1990500527 -1995960645 -784254</internalNodes>
          <leafValues>
            -7.6578664779663086e-01 6.0767990350723267e-01</leafValues></_></weakClassifiers></_>
    <!-- stage 11 -->
    <_>
      <maxWeakCount>3</maxWeakCount>
      <stageThreshold>-9.6593737602233887e-01</stageThreshold>
      <weakClassifiers>
        <_>
          <internalNodes>
            0 -1 26 -712392963 -548021185 -908996587 -650157733
            -184289379 -204955190 -809373733 -875959365</internalNodes>
          <leafValues>
            -7.5171065330505371e-01 6.5159130096435547e-01</leafValues></_>
        <_>
          <internalNodes>
            0 -1 43 -766059657 -749338091 98957 -6368898 -804157437
            1879589063 571146415 -589826</internalNodes>
          <leafValues>
            -8.8394528627395630e-01 5.3170418739318848e-01</leafValues></_>
        <_>
          <internalNodes>
            0 -1 10 -103089413 -638513635 2123123320 -9225 -1048346625
            1217233866 -276148257 -2105381</internalNodes>
          <leafValues>
            -7.0343995094299316e-01 6.6971856355667114e-01</leafValues></_></weakClassifiers></_>
    <!-- stage 12 -->
    <_>
      <maxWeakCount>3</maxWeakCount>
      <stageThreshold>-9.3943619728088379e-01</stageThreshold>
      <weakClassifiers>
        <_>
          <internalNodes>
            0 -1 45 -174612481 -65574 -1 -536870916 -5 -1 -1 -1</internalNodes>
          <leafValues>
            -6.7690956592559814e-01 8.1288981437683105e-01</leafValues></_>
        <_>
          <internalNodes>
            0 -1 49 -209715217 -1060265 -1878324863 -1282957245
            -47074320 -1282490065 -553392608 521395003</internalNodes>
          <leafValues>
            -8.0752468109130859e-01 5.7247120141983032e-01</leafValues></_>
        <_>
          <internalNodes>
            0 -1 14 -272106529 -41430077 -686573757 2010727057
            1339400955 -921509621 1203347921 1407936232</internalNodes>
          <leafValues>
            -7.9838335514068604e-01 5.4499804973602295e-01</leafValues></_></weakClassifiers></_>
    <!-- stage 13 -->
    <_>
      <maxWeakCount>3</maxWeakCount>
      <stageThreshold>-8.8691884279251099e-01</stageThreshold>
      <weakClassifiers>
        <_>
          <internalNodes>
            0 -1 30 271422431 51317407 5226271 -676357265 -1912404197
            -626325349 -1735751489 -68188234</internalNodes>
          <leafValues>
            -7.4007934331893921e-01 5.9803920984268188e-01</leafValues></_>
        <_>
          <internalNodes>
            0 -1 25 -386930781 -874785199 37393 -1018576823 -536629247
            -1740001280 -1013981055 -301995101</internalNodes>
          <leafValues>
            -7.1159899234771729e-01 6.5614783763885498e-01</leafValues></_>
        <_>
          <internalNodes>
            0 -1 4 -728552449 -126239277 17925417 1448726931 -259278347
            -248859245 -105862913 1603792603</internalNodes>
          <leafValues>
            -7.7335906028747559e-01 5.9987729787826538e-01</leafValues></_></weakClassifiers></_>
    <!-- stage 14 -->
    <_>
      <maxWeakCount>4</maxWeakCount>
      <stageThreshold>-3.9797571301460266e-01</stageThreshold>
      <weakClassifiers>
        <_>
          <internalNodes>
            0 -1 44 -183110817 -652754597 420037535 2064990271
            -376383016 -133614509 -1291076865 -94642277</internalNodes>
          <leafValues>
            -6.9924813508987427e-01 6.5467625856399536e-01</leafValues></_>
        <_>
          <internalNodes>
            0 -1 36 -92381345 -44186433 1091538989 -718145 -1824577535
            -1145110371 -384226802 -168523329</internalNodes>
          <leafValues>
            -8.5063219070434570e-01 5.1518815755844116e-01</leafValues></_>
        <_>
          <internalNodes>
            0 -1 34 -334106927 -19807919 -704096993 -1920515815
            -251545201 -374622077 -819864741 -845853219</internalNodes>
          <leafValues>
            -7.8922694921493530e-01 5.2077263593673706e-01</leafValues></_>
        <_>
          <internalNodes>
            0 -1 1 -1362107673 -552214298 -780018277 -687211950
            -1991714913 -108351719 -217651257 -940574909</internalNodes>
          <leafValues>
            -6.8875038623809814e-01 6.3113194704055786e-01</leafValues></_></weakClassifiers></_>
    <!-- stage 15 -->
    <_>
      <maxWeakCount>4</maxWeakCount>
      <stageThreshold>-5.9195518493652344e-01</stageThreshold>
      <weakClassifiers>
        <_>
          <internalNodes>
            0 -1 3 -572523009 -77072161 -926889828 -45174834 1391412780
            281412107 -1685066021 -14685505</internalNodes>
          <leafValues>
            -7.0605188608169556e-01 6.1312609910964966e-01</leafValues></_>
        <_>
          <internalNodes>
            0 -1 39 -1162806280 -1075971696 -888366753 -542252347
            -41758549 -91584376 -636565365 -570824287</internalNodes>
          <leafValues>
            -8.4743034839630127e-01 4.6902787685394287e-01</leafValues></_>
        <_>
          <internalNodes>
            0 -1 50 341835677 596683456 285299136 -103168873 -74464630
            196262072 1494949169 -1077944581</internalNodes>
          <leafValues>
            -8.0014252662658691e-01 5.2998602390289307e-01</leafValues></_>
        <_>
          <internalNodes>
            0 -1 17 -403702814 -423126202 1896976719 -779894269
            -338038101 265420842 1661155467 1656725899</internalNodes>
          <leafValues>
            -8.7855935096740723e-01 4.4521135091781616e-01</leafValues></_></weakClassifiers></_>
    <!-- stage 16 -->
    <_>
      <maxWeakCount>4</maxWeakCount>
      <stageThreshold>-6.7328357696533203e-01</stageThreshold>
      <weakClassifiers>
        <_>
          <internalNodes>
            0 -1 18 -1961028265 453509151 -1391505665 -274765066
            34181259 -1741872957 -2136446789 -285237001</internalNodes>
          <leafValues>
            -8.0821919441223145e-01 4.4086021184921265e-01</leafValues></_>
        <_>
          <internalNodes>
            0 -1 13 -536905729 1439451613 -1727445889 2098660375
            -511472498 -1414379096 -116699061 -25232821</internalNodes>
          <leafValues>
            -7.2829562425613403e-01 5.7022106647491455e-01</leafValues></_>
        <_>
          <internalNodes>
            0 -1 6 -8651858 -81719288 1358967695 2001302274 -1422685249
            -74518053 29555711 1420818310</internalNodes>
          <leafValues>
            -8.3074671030044556e-01 4.6666610240936279e-01</leafValues></_>
        <_>
          <internalNodes>
            0 -1 37 -1635200040 -1613939264 1092976850 -576727967
            -99892801 -1935538037 -1929281345 -236076059</internalNodes>
          <leafValues>
            -8.5251426696777344e-01 4.4973534345626831e-01</leafValues></_></weakClassifiers></_></stages>
  <features>
    <_>
      <rect>
        0 7 6 5</rect></_>
    <_>
      <rect>
        1 1 3 5</rect></_>
    <_>
      <rect>
        1 10 6 1</rect></_>
    <_>
      <rect>
        2 9 2 5</rect></_>
    <_>
      <rect>
        3 0 6 4</rect></_>
    <_>
      <rect>
        3 4 3 3</rect></_>
    <_>
      <rect>
        4 5 2 3</rect></_>
    <_>
      <rect>
        4 9 4 3</rect></_>
    <_>
      <rect>
        4 10 5 3</rect></_>
    <_>
      <rect>
        4 12 2 4</rect></_>
    <_>
      <rect>
        4 13 4 3</rect></_>
    <_>
      <rect>
        5 7 4 3</rect></_>
    <_>
      <rect>
        5 8 4 2</rect></_>
    <_>
      <rect>
        5 15 2 3</rect></_>
    <_>
      <rect>
        6 7 2 2</rect></_>
    <_>
      <rect>
        6 14 2 3</rect></_>
    <_>
      <rect>
        7 1 2 6</rect></_>
    <_>
      <rect>
        7 9 1 2</rect></_>
    <_>
      <rect>
        7 10 4 2</rect></_>
    <_>
      <rect>
        7 12 2 4</rect></_>
    <_>
      <rect>
        8 5 1 4</rect></_>
    <_>
      <rect>
        8 10 1 2</rect></_>
    <_>
      <rect>
        8 12 1 2</rect></_>
    <_>
      <rect>
        8 12 3 1</rect></_>
    <_>
      <rect>
        8 14 1 3</rect></_>
    <_>
      <rect>
        9 0 1 7</rect></_>
    <_>
      <rect>
        9 2 3 2</rect></_>
    <_>
      <rect>
        9 3 3 2</rect></_>
    <_>
      <rect>
        9 5 1 4</rect></_>
    <_>
      <rect>
        9 9 1 1</rect></_>
    <_>
      <rect>
        9 10 3 2</rect></_>
    <_>
      <rect>
        9 11 1 1</rect></_>
    <_>
      <rect>
        10 1 4 4</rect></_>
    <_>
      <rect>
        10 5 1 4</rect></_>
    <_>
      <rect>
        10 6 2 1</rect></_>
    <_>
      <rect>
        10 6 2 3</rect></_>
    <_>
      <rect>
        10 9 2 2</rect></_>
    <_>
      <rect>
        10 10 1 1</rect></_>
    <_>
      <rect>
        11 5 2 2</rect></_>
    <_>
      <rect>
        11 9 1 1</rect></_>
    <_>
      <rect>
        12 6 2 5</rect></_>
    <_>
      <rect>
        12 7 1 1</rect></_>
    <_>
      <rect>
        12 7 1 3</rect></_>
    <_>
      <rect>
        12 10 1 2</rect></_>
    <_>
      <rect>
        13 5 2 1</rect></_>
    <_>
      <rect>
        13 11 1 1</rect></_>
    <_>
      <rect>
        14 6 1 1</rect></_>
    <_>
      <rect>
        14 10 2 1</rect></_>
    <_>
      <rect>
        15 7 1 3</rect></_>
    <_>
      <rect>
        16 6 2 5</rect></_>
    <_>
      <rect>
        16 11 2 4</rect></_>
    <_>
      <rect>
        18 8 2 3</rect></_></features></cascade>
</opencv_storage>
