<?xml version="1.0"?>
<opencv_storage>
<cascade>
  <stageType>BOOST</stageType>
  <featureType>LBP</featureType>
  <height>24</height>
  <width>24</width>
  <stageParams>
    <boostType>GAB</boostType>
    <minHitRate>9.9500000476837158e-01</minHitRate>
    <maxFalseAlarm>5.0000000000000000e-01</maxFalseAlarm>
    <weightTrimRate>9.4999998807907104e-01</weightTrimRate>
    <maxDepth>1</maxDepth>
    <maxWeakCount>100</maxWeakCount></stageParams>
  <featureParams>
    <maxCatCount>256</maxCatCount>
    <featSize>1</featSize></featureParams>
  <stageNum>18</stageNum>
  <stages>
    <!-- stage 0 -->
    <_>
      <maxWeakCount>3</maxWeakCount>
      <stageThreshold>-1.1198637485504150e+00</stageThreshold>
      <weakClassifiers>
        <_>
          <internalNodes>
            0 -1 22 -1 -11537425 -1419918405 -69550689 -23607303
            -6104641 -50467844 -328708</internalNodes>
          <leafValues>
            -9.5761859416961670e-01 8.4496122598648071e-01</leafValues></_>
        <_>
          <internalNodes>
            0 -1 3 -628883457 -541345 -205673537 -19336194 -560939265
            -3958033 -609226753 -984142</internalNodes>
          <leafValues>
            -9.1993051767349243e-01 7.4332469701766968e-01</leafValues></_>
        <_>
          <internalNodes>
            0 -1 17 -318775297 -157812817 -222311425 -17110082
            -469762049 -4338561 -74946 -51970180</internalNodes>
          <leafValues>
            -9.0556991100311279e-01 8.2055318355560303e-01</leafValues></_></weakClassifiers></_>
    <!-- stage 1 -->
    <_>
      <maxWeakCount>3</maxWeakCount>
      <stageThreshold>-1.1205090284347534e+00</stageThreshold>
      <weakClassifiers>
        <_>
          <internalNodes>
            0 -1 15 -168337537 -2664577 926146525 -2162913 -757092929
            -1025 -40438818 -327684</internalNodes>
          <leafValues>
            -9.3673467636108398e-01 7.4371856451034546e-01</leafValues></_>
        <_>
          <internalNodes>
            0 -1 30 -1208017089 -2107393 -25793 -34081287 -1363447825
            -806618401 -17989665 -295043</internalNodes>
          <leafValues>
            -8.9083582162857056e-01 7.9031914472579956e-01</leafValues></_>
        <_>
          <internalNodes>
            0 -1 37 -2097153 -1886925857 -777792097 -144710787
            1719742452 237660773 -91493835 -267273</internalNodes>
          <leafValues>
            -9.3659669160842896e-01 7.0706146955490112e-01</leafValues></_></weakClassifiers></_>
    <!-- stage 2 -->
    <_>
      <maxWeakCount>2</maxWeakCount>
      <stageThreshold>-3.1097662448883057e-01</stageThreshold>
      <weakClassifiers>
        <_>
          <internalNodes>
            0 -1 21 -102760449 -145492009 -71994497 -40778757 -7083794
            -1403257170 -121962754 -16777473</internalNodes>
          <leafValues>
            -9.6382981538772583e-01 6.4840179681777954e-01</leafValues></_>
        <_>
          <internalNodes>
            0 -1 38 -1140850689 -352072201 -2001697142 -1245730585 -33
            -1155284501 -1245732869 -1342178305</internalNodes>
          <leafValues>
            -9.3526017665863037e-01 6.5285319089889526e-01</leafValues></_></weakClassifiers></_>
    <!-- stage 3 -->
    <_>
      <maxWeakCount>3</maxWeakCount>
      <stageThreshold>-1.0633487701416016e+00</stageThreshold>
      <weakClassifiers>
        <_>
          <internalNodes>
            0 -1 36 -41473 -173060645 -369634441 -69513809 -3379489
            -540019018 -290718721 -32769</internalNodes>
          <leafValues>
            -8.9949750900268555e-01 7.1279370784759521e-01</leafValues></_>
        <_>
          <internalNodes>
            0 -1 1 -339227137 -437818321 -541629955 -1585716 -68854281
            -8411043 -206682381 -1259</internalNodes>
          <leafValues>
            -8.9458769559860229e-01 6.9357514381408691e-01</leafValues></_>
        <_>
          <internalNodes>
            0 -1 41 -2097313 -555745891 -774119457 -57676961 -24532198
            -897362738 -251669573 -220266498</internalNodes>
          <leafValues>
            -8.5742646455764771e-01 7.3910862207412720e-01</leafValues></_></weakClassifiers></_>
    <!-- stage 4 -->
    <_>
      <maxWeakCount>3</maxWeakCount>
      <stageThreshold>-1.1010388135910034e+00</stageThreshold>
      <weakClassifiers>
        <_>
          <internalNodes>
            0 -1 24 -69206049 -150884413 -190062053 -147066425
            -290725225 -1191141245 -225461473 -543162977</internalNodes>
          <leafValues>
            -8.8999998569488525e-01 7.0899468660354614e-01</leafValues></_>
        <_>
          <internalNodes>
            0 -1 31 -69730305 -1077020931 -524100950 -1348733186
            -40971537 -552906601 -289678337 -17</internalNodes>
          <leafValues>
            -8.5848248004913330e-01 6.4166504144668579e-01</leafValues></_>
        <_>
          <internalNodes>
            0 -1 52 -2097153 990435582 -1046116332 -1599146357
            -2046464947 -1288201600 -974161155 -46137345</internalNodes>
          <leafValues>
            -8.5270380973815918e-01 7.2590780258178711e-01</leafValues></_></weakClassifiers></_>
    <!-- stage 5 -->
    <_>
      <maxWeakCount>3</maxWeakCount>
      <stageThreshold>-1.1171016693115234e+00</stageThreshold>
      <weakClassifiers>
        <_>
          <internalNodes>
            0 -1 35 -3149489 -73818044 268577143 -134768617 -234381125
            -1214062029 -519570513 -265445</internalNodes>
          <leafValues>
            -8.8798367977142334e-01 6.3131314516067505e-01</leafValues></_>
        <_>
          <internalNodes>
            0 -1 12 1426133373 -82243053 285544895 1964580113
            -1164403715 -1079342701 -1165387602 -290801110</internalNodes>
          <leafValues>
            -8.4011054039001465e-01 6.2881976366043091e-01</leafValues></_>
        <_>
          <internalNodes>
            0 -1 11 -148374562 -244252109 -1593796267 -581723367
            -683213858 -1312578910 -217725953 -1275084837</internalNodes>
          <leafValues>
            -8.5793769359588623e-01 6.5989404916763306e-01</leafValues></_></weakClassifiers></_>
    <!-- stage 6 -->
    <_>
      <maxWeakCount>3</maxWeakCount>
      <stageThreshold>-1.1173723936080933e+00</stageThreshold>
      <weakClassifiers>
        <_>
          <internalNodes>
            0 -1 42 -70264481 -15638201 1359340701 -616205541 -805048081
            -744848640 -418664733 -210240913</internalNodes>
          <leafValues>
            -8.7044537067413330e-01 6.1025643348693848e-01</leafValues></_>
        <_>
          <internalNodes>
            0 -1 19 1954733023 1366881742 93962587 286116191 -611991301
            -73650759 -1011449717 -2137653</internalNodes>
          <leafValues>
            -8.6147898435592651e-01 6.0383528470993042e-01</leafValues></_>
        <_>
          <internalNodes>
            0 -1 7 -717166097 -136737025 -115224137 -418176353
            -234828882 -1164271437 -1448367173 -69002493</internalNodes>
          <leafValues>
            -8.5076230764389038e-01 6.8061113357543945e-01</leafValues></_></weakClassifiers></_>
    <!-- stage 7 -->
    <_>
      <maxWeakCount>3</maxWeakCount>
      <stageThreshold>-1.2668348550796509e+00</stageThreshold>
      <weakClassifiers>
        <_>
          <internalNodes>
            0 -1 34 -203431473 -74346147 -491669807 -135020461
            -1311656961 -1440505462 -878445829 -75506849</internalNodes>
          <leafValues>
            -8.8638800382614136e-01 4.6067416667938232e-01</leafValues></_>
        <_>
          <internalNodes>
            0 -1 4 -1845423617 -772368137 306203659 -3613218 -654212929
            -1582062201 -752615249 -12321845</internalNodes>
          <leafValues>
            -8.8012939691543579e-01 5.3406113386154175e-01</leafValues></_>
        <_>
          <internalNodes>
            0 -1 49 -80743494 1394201227 1142014066 117960795 -189813797
            -935690101 -1070475093 1065339871</internalNodes>
          <leafValues>
            -9.1450798511505127e-01 5.3760284185409546e-01</leafValues></_></weakClassifiers></_>
    <!-- stage 8 -->
    <_>
      <maxWeakCount>3</maxWeakCount>
      <stageThreshold>-1.1406996250152588e+00</stageThreshold>
      <weakClassifiers>
        <_>
          <internalNodes>
            0 -1 32 -204472369 -204408125 713110019 -137371185
            -1279004325 -1161703277 -777800869 -693</internalNodes>
          <leafValues>
            -8.6528497934341431e-01 5.1573848724365234e-01</leafValues></_>
        <_>
          <internalNodes>
            0 -1 20 -40288257 -2232833 -1021988131 -618855717 -15847169
            -354202392 411926479 -9473105</internalNodes>
          <leafValues>
            -8.6310106515884399e-01 5.3806042671203613e-01</leafValues></_>
        <_>
          <internalNodes>
            0 -1 51 -538975261 -280243857 -754514158 -547567157
            -657857569 1328124011 -789845865 -269488417</internalNodes>
          <leafValues>
            -7.9333710670471191e-01 6.7090642452239990e-01</leafValues></_></weakClassifiers></_>
    <!-- stage 9 -->
    <_>
      <maxWeakCount>3</maxWeakCount>
      <stageThreshold>-1.1565223932266235e+00</stageThreshold>
      <weakClassifiers>
        <_>
          <internalNodes>
            0 -1 13 -685778977 -706623837 -2117483570 -683163634
            -2125270133 -1040166891 1708651674 -17843542</internalNodes>
          <leafValues>
            -8.5284972190856934e-01 4.8668280243873596e-01</leafValues></_>
        <_>
          <internalNodes>
            0 -1 14 -2029789263 -204623664 -1857691311 -1210198799
            -1417560385 -368476076 -1717191685 -605056787</internalNodes>
          <leafValues>
            -7.7460312843322754e-01 6.3432919979095459e-01</leafValues></_>
        <_>
          <internalNodes>
            0 -1 27 -209226789 -804015918 1527832919 -74728993
            -1961165733 -476012365 468446099 1540061595</internalNodes>
          <leafValues>
            -8.6860203742980957e-01 5.7119387388229370e-01</leafValues></_></weakClassifiers></_>
    <!-- stage 10 -->
    <_>
      <maxWeakCount>3</maxWeakCount>
      <stageThreshold>-1.1525775194168091e+00</stageThreshold>
      <weakClassifiers>
        <_>
          <internalNodes>
            0 -1 18 1368462135 -208588515 1359303639 -552512235
            -83649093 -68345583 -1173897329 -324289733</internalNodes>
          <leafValues>
            -8.3536583185195923e-01 5.0761419534683228e-01</leafValues></_>
        <_>
          <internalNodes>
            0 -1 48 -537922233 -34405985 1460525339 -113789669 -61604146
            -23986133 1113586831 -83891205</internalNodes>
          <leafValues>
            -7.3820698261260986e-01 6.8302696943283081e-01</leafValues></_>
        <_>
          <internalNodes>
            0 -1 8 -75433013 -7957566 1074800115 1462145431 1940500223
            1339754889 -1450472757 1527761050</internalNodes>
          <leafValues>
            -9.2198473215103149e-01 5.1212912797927856e-01</leafValues></_></weakClassifiers></_>
    <!-- stage 11 -->
    <_>
      <maxWeakCount>3</maxWeakCount>
      <stageThreshold>-1.1625344753265381e+00</stageThreshold>
      <weakClassifiers>
        <_>
          <internalNodes>
            0 -1 33 -117838101 -1073632667 1912701057 -77397629
            -1289112645 -121601278 -1560045653 -88088053</internalNodes>
          <leafValues>
            -8.2862901687622070e-01 5.1813471317291260e-01</leafValues></_>
        <_>
          <internalNodes>
            0 -1 6 -207182530 -684863009 -1257945713 -149044981
            -1280651073 -68836421 -426120965 2138405439</internalNodes>
          <leafValues>
            -9.0704047679901123e-01 4.4497492909431458e-01</leafValues></_>
        <_>
          <internalNodes>
            0 -1 50 -134761473 -1153789942 -753726988 1574952041
            -1390601492 707453572 -236088487 -34612503</internalNodes>
          <leafValues>
            -7.7362871170043945e-01 6.0011547803878784e-01</leafValues></_></weakClassifiers></_>
    <!-- stage 12 -->
    <_>
      <maxWeakCount>3</maxWeakCount>
      <stageThreshold>-1.2318829298019409e+00</stageThreshold>
      <weakClassifiers>
        <_>
          <internalNodes>
            0 -1 40 -245369857 -211921961 1359023478 -1208319582
            -1726232417 -163479296 -1257299575 -2097</internalNodes>
          <leafValues>
            -8.3867633342742920e-01 4.5985400676727295e-01</leafValues></_>
        <_>
          <internalNodes>
            0 -1 25 1907853245 -11304137 23107070 -2081354285
            -1141638168 -1623416184 -1179387396 -67388488</internalNodes>
          <leafValues>
            -9.0533095598220825e-01 4.7510173916816711e-01</leafValues></_>
        <_>
          <internalNodes>
            0 -1 47 -69740021 -32140905 -1113623843 -21152177 -627311861
            -73412721 -607257957 -83955857</internalNodes>
          <leafValues>
            -8.3880180120468140e-01 5.1212435960769653e-01</leafValues></_></weakClassifiers></_>
    <!-- stage 13 -->
    <_>
      <maxWeakCount>3</maxWeakCount>
      <stageThreshold>-1.2256814241409302e+00</stageThreshold>
      <weakClassifiers>
        <_>
          <internalNodes>
            0 -1 45 -681585185 -250109177 805344046 -1991264497
            860967919 -653557555 2065515000 -1050625</internalNodes>
          <leafValues>
            -8.5957449674606323e-01 4.2465752363204956e-01</leafValues></_>
        <_>
          <internalNodes>
            0 -1 9 -1366298229 -141832141 -988065665 -708972299
            206830495 2013986952 -909404025 -704686623</internalNodes>
          <leafValues>
            -8.2738953828811646e-01 4.8278370499610901e-01</leafValues></_>
        <_>
          <internalNodes>
            0 -1 29 -1147677755 -8814756 -1778016073 1237160661
            -2086081889 -81087686 1258541995 2012211903</internalNodes>
          <leafValues>
            -9.1885155439376831e-01 4.6128255128860474e-01</leafValues></_></weakClassifiers></_>
    <!-- stage 14 -->
    <_>
      <maxWeakCount>2</maxWeakCount>
      <stageThreshold>-5.3860121965408325e-01</stageThreshold>
      <weakClassifiers>
        <_>
          <internalNodes>
            0 -1 26 -570436097 -583053057 -1403658566 -1077936385
            -645885445 -259473266 -1119822337 -1338401</internalNodes>
          <leafValues>
            -8.6784142255783081e-01 3.5319149494171143e-01</leafValues></_>
        <_>
          <internalNodes>
            0 -1 10 -1612121170 -102385278 -867175425 -371359737
            -1195207765 -1303122753 -1663895393 -132587</internalNodes>
          <leafValues>
            -8.9179265499114990e-01 3.9017257094383240e-01</leafValues></_></weakClassifiers></_>
    <!-- stage 15 -->
    <_>
      <maxWeakCount>4</maxWeakCount>
      <stageThreshold>-6.8964016437530518e-01</stageThreshold>
      <weakClassifiers>
        <_>
          <internalNodes>
            0 -1 39 -4724177 -754654305 -2142204797 -553597275
            -227835850 -1023172589 -116216865 -35131569</internalNodes>
          <leafValues>
            -7.9744344949722290e-01 5.2354568243026733e-01</leafValues></_>
        <_>
          <internalNodes>
            0 -1 5 -720145921 -572582753 421268607 -3473921 268494255
            -1697410834 -1433822533 -12329554</internalNodes>
          <leafValues>
            -7.9885846376419067e-01 5.0198614597320557e-01</leafValues></_>
        <_>
          <internalNodes>
            0 -1 28 -857607719 -1948546601 -942682665 -1650473579
            -1070074893 -309950021 1702619259 708504527</internalNodes>
          <leafValues>
            -9.1513782739639282e-01 4.4362714886665344e-01</leafValues></_>
        <_>
          <internalNodes>
            0 -1 0 -155206177 -999227213 -513978241 -15084274 -197918785
            1774915787 1954653095 -39066648</internalNodes>
          <leafValues>
            -8.1615209579467773e-01 5.2095496654510498e-01</leafValues></_></weakClassifiers></_>
    <!-- stage 16 -->
    <_>
      <maxWeakCount>3</maxWeakCount>
      <stageThreshold>-1.2922049760818481e+00</stageThreshold>
      <weakClassifiers>
        <_>
          <internalNodes>
            0 -1 43 -740819985 -752672609 -2130584766 -791412265
            -611812809 1963163914 2147415030 -16777233</internalNodes>
          <leafValues>
            -8.3895540237426758e-01 3.2461872696876526e-01</leafValues></_>
        <_>
          <internalNodes>
            0 -1 53 -3279873 -2028296678 1344307200 -1110008440
            -605691415 1881538571 -36846155 -33556513</internalNodes>
          <leafValues>
            -8.0238664150238037e-01 4.8082146048545837e-01</leafValues></_>
        <_>
          <internalNodes>
            0 -1 23 1343249701 1439824379 -586868257 2147441179
            -627249181 -6691928 -384722293 -596350</internalNodes>
          <leafValues>
            -8.1443703174591064e-01 5.2883934974670410e-01</leafValues></_></weakClassifiers></_>
    <!-- stage 17 -->
    <_>
      <maxWeakCount>4</maxWeakCount>
      <stageThreshold>-7.7841007709503174e-01</stageThreshold>
      <weakClassifiers>
        <_>
          <internalNodes>
            0 -1 16 -1324289025 -243198981 1040268285 -16248449
            -1583038467 -1177431879 -2004108624 -106329637</internalNodes>
          <leafValues>
            -8.5714286565780640e-01 3.7444934248924255e-01</leafValues></_>
        <_>
          <internalNodes>
            0 -1 44 -142082049 -610826861 -1061604596 -790589349
            1401172471 101679147 -107326992 -34604545</internalNodes>
          <leafValues>
            -7.4677187204360962e-01 5.1532959938049316e-01</leafValues></_>
        <_>
          <internalNodes>
            0 -1 46 -1626352641 910999871 -783617684 -1155874484
            118568761 1971978865 331733982 -1073743235</internalNodes>
          <leafValues>
            -8.1628060340881348e-01 4.8510000109672546e-01</leafValues></_>
        <_>
          <internalNodes>
            0 -1 2 1507186684 -1728122130 -2143245433 -20519702
            -1701477889 -1081220313 -2130064605 -16270529</internalNodes>
          <leafValues>
            -8.5190844535827637e-01 4.3708622455596924e-01</leafValues></_></weakClassifiers></_></stages>
  <features>
    <_>
      <rect>
        0 4 4 3</rect></_>
    <_>
      <rect>
        0 4 5 2</rect></_>
    <_>
      <rect>
        1 7 3 4</rect></_>
    <_>
      <rect>
        2 9 4 2</rect></_>
    <_>
      <rect>
        3 9 3 3</rect></_>
    <_>
      <rect>
        3 10 3 2</rect></_>
    <_>
      <rect>
        4 1 5 3</rect></_>
    <_>
      <rect>
        4 3 4 3</rect></_>
    <_>
      <rect>
        4 16 5 2</rect></_>
    <_>
      <rect>
        5 5 1 2</rect></_>
    <_>
      <rect>
        6 3 3 2</rect></_>
    <_>
      <rect>
        6 3 5 7</rect></_>
    <_>
      <rect>
        6 10 6 2</rect></_>
    <_>
      <rect>
        7 5 2 6</rect></_>
    <_>
      <rect>
        8 5 1 1</rect></_>
    <_>
      <rect>
        8 10 1 2</rect></_>
    <_>
      <rect>
        8 10 4 1</rect></_>
    <_>
      <rect>
        8 11 1 1</rect></_>
    <_>
      <rect>
        8 12 3 1</rect></_>
    <_>
      <rect>
        8 15 3 3</rect></_>
    <_>
      <rect>
        9 5 2 2</rect></_>
    <_>
      <rect>
        9 8 4 4</rect></_>
    <_>
      <rect>
        9 10 1 2</rect></_>
    <_>
      <rect>
        9 18 2 2</rect></_>
    <_>
      <rect>
        10 0 3 6</rect></_>
    <_>
      <rect>
        10 9 3 2</rect></_>
    <_>
      <rect>
        10 15 3 2</rect></_>
    <_>
      <rect>
        11 1 3 6</rect></_>
    <_>
      <rect>
        11 2 3 3</rect></_>
    <_>
      <rect>
        11 6 3 3</rect></_>
    <_>
      <rect>
        11 7 1 1</rect></_>
    <_>
      <rect>
        11 15 3 2</rect></_>
    <_>
      <rect>
        12 1 2 6</rect></_>
    <_>
      <rect>
        12 3 1 5</rect></_>
    <_>
      <rect>
        12 4 2 4</rect></_>
    <_>
      <rect>
        12 5 2 4</rect></_>
    <_>
      <rect>
        12 6 1 2</rect></_>
    <_>
      <rect>
        12 10 4 4</rect></_>
    <_>
      <rect>
        12 12 2 4</rect></_>
    <_>
      <rect>
        13 1 1 6</rect></_>
    <_>
      <rect>
        13 13 1 3</rect></_>
    <_>
      <rect>
        14 3 3 3</rect></_>
    <_>
      <rect>
        14 6 1 3</rect></_>
    <_>
      <rect>
        14 12 1 2</rect></_>
    <_>
      <rect>
        14 13 1 2</rect></_>
    <_>
      <rect>
        14 13 1 3</rect></_>
    <_>
      <rect>
        14 15 2 3</rect></_>
    <_>
      <rect>
        15 2 3 4</rect></_>
    <_>
      <rect>
        15 4 2 2</rect></_>
    <_>
      <rect>
        16 6 2 5</rect></_>
    <_>
      <rect>
        16 13 2 3</rect></_>
    <_>
      <rect>
        17 12 2 2</rect></_>
    <_>
      <rect>
        19 9 1 4</rect></_>
    <_>
      <rect>
        19 11 1 3</rect></_></features></cascade>
</opencv_storage>
