<?xml version="1.0"?>
<opencv_storage>
<cascade>
  <stageType>BOOST</stageType>
  <featureType>LBP</featureType>
  <height>24</height>
  <width>24</width>
  <stageParams>
    <boostType>GAB</boostType>
    <minHitRate>9.9500000476837158e-01</minHitRate>
    <maxFalseAlarm>5.0000000000000000e-01</maxFalseAlarm>
    <weightTrimRate>9.4999998807907104e-01</weightTrimRate>
    <maxDepth>1</maxDepth>
    <maxWeakCount>100</maxWeakCount></stageParams>
  <featureParams>
    <maxCatCount>256</maxCatCount>
    <featSize>1</featSize></featureParams>
  <stageNum>12</stageNum>
  <stages>
    <!-- stage 0 -->
    <_>
      <maxWeakCount>2</maxWeakCount>
      <stageThreshold>-1.9365188479423523e-01</stageThreshold>
      <weakClassifiers>
        <_>
          <internalNodes>
            0 -1 20 1442814429 -4770929 -1280454147 -543785 -1182082817
            -15754563 -1079274757 -1311009</internalNodes>
          <leafValues>
            -9.8983740806579590e-01 7.9512196779251099e-01</leafValues></_>
        <_>
          <internalNodes>
            0 -1 16 -42598401 -6690319 465801563 -953957 -898125825
            -273949565 -1601205526 -17</internalNodes>
          <leafValues>
            -9.8877382278442383e-01 8.0145341157913208e-01</leafValues></_></weakClassifiers></_>
    <!-- stage 1 -->
    <_>
      <maxWeakCount>3</maxWeakCount>
      <stageThreshold>-1.2219979763031006e+00</stageThreshold>
      <weakClassifiers>
        <_>
          <internalNodes>
            0 -1 13 -71303169 -2621505 -795285573 -18497 -907026433
            -3679565 -67576449 -1</internalNodes>
          <leafValues>
            -9.7788941860198975e-01 8.3505153656005859e-01</leafValues></_>
        <_>
          <internalNodes>
            0 -1 19 -526337 -588189739 -138680857 -33694754 -220725249
            -271868725 -71566337 -33555457</internalNodes>
          <leafValues>
            -9.7803294658660889e-01 8.0093604326248169e-01</leafValues></_>
        <_>
          <internalNodes>
            0 -1 26 -209 2141181951 -1182794930 -297861121 -917705
            -538446897 -33816793 -17829906</internalNodes>
          <leafValues>
            -9.8595935106277466e-01 7.3392444849014282e-01</leafValues></_></weakClassifiers></_>
    <!-- stage 2 -->
    <_>
      <maxWeakCount>2</maxWeakCount>
      <stageThreshold>-3.2754260301589966e-01</stageThreshold>
      <weakClassifiers>
        <_>
          <internalNodes>
            0 -1 25 -69206017 -4194817 -28311826 -21037537 -101976753
            -6947841 -8652822 -16850945</internalNodes>
          <leafValues>
            -9.7944504022598267e-01 6.5740740299224854e-01</leafValues></_>
        <_>
          <internalNodes>
            0 -1 8 -100663361 -1210327681 -606353473 2142726941
            -34407425 -1073751105 -6292609 -4097</internalNodes>
          <leafValues>
            -9.8495000600814819e-01 6.7021656036376953e-01</leafValues></_></weakClassifiers></_>
    <!-- stage 3 -->
    <_>
      <maxWeakCount>3</maxWeakCount>
      <stageThreshold>-1.1825362443923950e+00</stageThreshold>
      <weakClassifiers>
        <_>
          <internalNodes>
            0 -1 22 -1 -3162125 -1101291266 -440407233 -91750529
            -422334521 -1280398417 -17</internalNodes>
          <leafValues>
            -9.6960484981536865e-01 7.2277230024337769e-01</leafValues></_>
        <_>
          <internalNodes>
            0 -1 2 -67371009 -135210081 -989344865 -6197 -203423745
            -204420982 -538216545 -8456205</internalNodes>
          <leafValues>
            -9.3920147418975830e-01 7.3386967182159424e-01</leafValues></_>
        <_>
          <internalNodes>
            0 -1 14 -34603009 -167903425 -110896739 -637665895
            -952116257 -91558217 -538199041 -88097905</internalNodes>
          <leafValues>
            -9.4680100679397583e-01 7.2808533906936646e-01</leafValues></_></weakClassifiers></_>
    <!-- stage 4 -->
    <_>
      <maxWeakCount>3</maxWeakCount>
      <stageThreshold>-1.2241382598876953e+00</stageThreshold>
      <weakClassifiers>
        <_>
          <internalNodes>
            0 -1 9 -875046913 -173681761 -318668705 -744494969
            -276578053 -543194433 -2099985 -3185</internalNodes>
          <leafValues>
            -9.2592591047286987e-01 8.5276073217391968e-01</leafValues></_>
        <_>
          <internalNodes>
            0 -1 30 -2228225 -2160315 -1994677825 -579481173 -878516061
            -274488640 -1312820501 -136840705</internalNodes>
          <leafValues>
            -9.4487714767456055e-01 6.5697497129440308e-01</leafValues></_>
        <_>
          <internalNodes>
            0 -1 4 -1146114129 -138153769 1392767359 -48787097 696367855
            -72772722 986419679 -67165221</internalNodes>
          <leafValues>
            -9.5518732070922852e-01 6.7898893356323242e-01</leafValues></_></weakClassifiers></_>
    <!-- stage 5 -->
    <_>
      <maxWeakCount>3</maxWeakCount>
      <stageThreshold>-1.2421127557754517e+00</stageThreshold>
      <weakClassifiers>
        <_>
          <internalNodes>
            0 -1 18 -270534657 -167788617 -513814505 -251664293
            -623914769 -500760575 -809113681 -33559557</internalNodes>
          <leafValues>
            -9.3179535865783691e-01 6.1458331346511841e-01</leafValues></_>
        <_>
          <internalNodes>
            0 -1 15 -370409635 -183124513 -669515905 -1077176929
            -75371011 -1410817559 -82580229 -69813317</internalNodes>
          <leafValues>
            -9.7460788488388062e-01 6.1013936996459961e-01</leafValues></_>
        <_>
          <internalNodes>
            0 -1 17 -2359297 -40386333 -2063593130 -74853389 -497814049
            -132404968 -506337123 -1929647169</internalNodes>
          <leafValues>
            -9.2045670747756958e-01 6.6817402839660645e-01</leafValues></_></weakClassifiers></_>
    <!-- stage 6 -->
    <_>
      <maxWeakCount>3</maxWeakCount>
      <stageThreshold>-1.2526477575302124e+00</stageThreshold>
      <weakClassifiers>
        <_>
          <internalNodes>
            0 -1 21 -237641745 -144839433 -244844561 -526337 -9126913
            -2134171216 -471991313 -167775237</internalNodes>
          <leafValues>
            -9.1185110807418823e-01 7.1428573131561279e-01</leafValues></_>
        <_>
          <internalNodes>
            0 -1 29 -738197657 -212364669 8634379 -619717757 -1065238025
            -802021373 -1043338269 -537919545</internalNodes>
          <leafValues>
            -9.3848580121994019e-01 6.3826578855514526e-01</leafValues></_>
        <_>
          <internalNodes>
            0 -1 27 -2097161 1967629167 -1072651873 -75930993 1931867133
            191220453 -18356291 -2114577</internalNodes>
          <leafValues>
            -9.3949216604232788e-01 5.9768909215927124e-01</leafValues></_></weakClassifiers></_>
    <!-- stage 7 -->
    <_>
      <maxWeakCount>3</maxWeakCount>
      <stageThreshold>-1.3445595502853394e+00</stageThreshold>
      <weakClassifiers>
        <_>
          <internalNodes>
            0 -1 23 -1056801 -85067779 960594705 -587728453 -238036693
            -1509749886 -741637241 -24118309</internalNodes>
          <leafValues>
            -9.3054139614105225e-01 4.7619047760963440e-01</leafValues></_>
        <_>
          <internalNodes>
            0 -1 0 -682560545 -2438663 -715161155 -576880563 1610917105
            -141907550 -604271169 -13589</internalNodes>
          <leafValues>
            -9.1711199283599854e-01 6.0055488348007202e-01</leafValues></_>
        <_>
          <internalNodes>
            0 -1 6 -678044673 -648296529 427939615 -677400641 -393154113
            -909911910 411607763 -10528582</internalNodes>
          <leafValues>
            -9.0363806486129761e-01 6.6147238016128540e-01</leafValues></_></weakClassifiers></_>
    <!-- stage 8 -->
    <_>
      <maxWeakCount>3</maxWeakCount>
      <stageThreshold>-1.3388395309448242e+00</stageThreshold>
      <weakClassifiers>
        <_>
          <internalNodes>
            0 -1 7 -549988353 -84420609 -922413569 -75655727 -1881025601
            -323051395 -293106689 -273729</internalNodes>
          <leafValues>
            -9.0147781372070313e-01 5.9770113229751587e-01</leafValues></_>
        <_>
          <internalNodes>
            0 -1 24 -725878785 -748695425 -1357336934 -1163207939
            -127741473 -574324572 -305406977 -1073741825</internalNodes>
          <leafValues>
            -9.4040912389755249e-01 4.9769842624664307e-01</leafValues></_>
        <_>
          <internalNodes>
            0 -1 10 -806355073 -2105857 -68690147 -38029505 -206570497
            -56579109 -87724361 -67974963</internalNodes>
          <leafValues>
            -9.3506008386611938e-01 6.1503213644027710e-01</leafValues></_></weakClassifiers></_>
    <!-- stage 9 -->
    <_>
      <maxWeakCount>2</maxWeakCount>
      <stageThreshold>-6.8793618679046631e-01</stageThreshold>
      <weakClassifiers>
        <_>
          <internalNodes>
            0 -1 31 -209985537 -69217479 -1055850025 -179448375
            -22414848 -871720952 -288359458 -13894753</internalNodes>
          <leafValues>
            -9.5869565010070801e-01 2.6394051313400269e-01</leafValues></_>
        <_>
          <internalNodes>
            0 -1 5 -572526097 -35728757 319096511 -92634913 -1635522389
            -44066551 -2028287078 -10289254</internalNodes>
          <leafValues>
            -9.5187675952911377e-01 4.2067098617553711e-01</leafValues></_></weakClassifiers></_>
    <!-- stage 10 -->
    <_>
      <maxWeakCount>3</maxWeakCount>
      <stageThreshold>-1.2342418432235718e+00</stageThreshold>
      <weakClassifiers>
        <_>
          <internalNodes>
            0 -1 3 -741213697 -70032969 1464931839 -705611845 -67919905
            -1082031685 -618930177 -543817729</internalNodes>
          <leafValues>
            -8.8737863302230835e-01 6.4779871702194214e-01</leafValues></_>
        <_>
          <internalNodes>
            0 -1 11 -581798913 -27570593 -721333283 -1428162423
            -1398621253 -88473174 -75461893 -5590110</internalNodes>
          <leafValues>
            -9.0717291831970215e-01 5.3993874788284302e-01</leafValues></_>
        <_>
          <internalNodes>
            0 -1 12 -8195 -238962827 -250639357 -40926597 -1899787771
            -1095818453 -1146116405 -140260409</internalNodes>
          <leafValues>
            -8.8680195808410645e-01 5.9145367145538330e-01</leafValues></_></weakClassifiers></_>
    <!-- stage 11 -->
    <_>
      <maxWeakCount>3</maxWeakCount>
      <stageThreshold>-1.2073655128479004e+00</stageThreshold>
      <weakClassifiers>
        <_>
          <internalNodes>
            0 -1 32 -1033 -1885670486 -784874218 -572526289 -573062741
            -252471141 -9440823 -1569</internalNodes>
          <leafValues>
            -8.8976377248764038e-01 5.3757226467132568e-01</leafValues></_>
        <_>
          <internalNodes>
            0 -1 28 -254543881 1447219207 537025055 -695659999
            1599165916 -94127123 -67108929 -1049633</internalNodes>
          <leafValues>
            -9.1065609455108643e-01 5.4921442270278931e-01</leafValues></_>
        <_>
          <internalNodes>
            0 -1 1 -218103809 -65810141 -807939139 -150885997 1469574655
            -129584219 248149431 -2097521</internalNodes>
          <leafValues>
            -8.6681616306304932e-01 6.1117315292358398e-01</leafValues></_></weakClassifiers></_></stages>
  <features>
    <_>
      <rect>
        0 11 4 2</rect></_>
    <_>
      <rect>
        1 8 3 3</rect></_>
    <_>
      <rect>
        4 4 4 6</rect></_>
    <_>
      <rect>
        5 0 5 3</rect></_>
    <_>
      <rect>
        5 7 2 3</rect></_>
    <_>
      <rect>
        5 14 1 1</rect></_>
    <_>
      <rect>
        6 14 2 2</rect></_>
    <_>
      <rect>
        7 7 3 2</rect></_>
    <_>
      <rect>
        7 7 4 3</rect></_>
    <_>
      <rect>
        7 8 3 5</rect></_>
    <_>
      <rect>
        7 8 5 3</rect></_>
    <_>
      <rect>
        7 9 3 1</rect></_>
    <_>
      <rect>
        8 5 2 5</rect></_>
    <_>
      <rect>
        8 7 4 3</rect></_>
    <_>
      <rect>
        8 8 5 4</rect></_>
    <_>
      <rect>
        8 11 4 2</rect></_>
    <_>
      <rect>
        8 12 4 4</rect></_>
    <_>
      <rect>
        9 0 2 4</rect></_>
    <_>
      <rect>
        9 5 2 5</rect></_>
    <_>
      <rect>
        9 8 2 4</rect></_>
    <_>
      <rect>
        9 10 4 3</rect></_>
    <_>
      <rect>
        10 6 3 4</rect></_>
    <_>
      <rect>
        10 6 3 6</rect></_>
    <_>
      <rect>
        11 7 1 4</rect></_>
    <_>
      <rect>
        11 16 2 2</rect></_>
    <_>
      <rect>
        12 15 1 1</rect></_>
    <_>
      <rect>
        13 11 1 1</rect></_>
    <_>
      <rect>
        13 11 3 4</rect></_>
    <_>
      <rect>
        13 13 2 3</rect></_>
    <_>
      <rect>
        14 0 1 6</rect></_>
    <_>
      <rect>
        14 6 2 2</rect></_>
    <_>
      <rect>
        15 7 1 1</rect></_>
    <_>
      <rect>
        19 11 1 3</rect></_></features></cascade>
</opencv_storage>
