<?xml version="1.0"?>
<opencv_storage>
<cascade>
  <stageType>BOOST</stageType>
  <featureType>LBP</featureType>
  <height>24</height>
  <width>24</width>
  <stageParams>
    <boostType>GAB</boostType>
    <minHitRate>9.9500000476837158e-01</minHitRate>
    <maxFalseAlarm>5.0000000000000000e-01</maxFalseAlarm>
    <weightTrimRate>9.4999998807907104e-01</weightTrimRate>
    <maxDepth>1</maxDepth>
    <maxWeakCount>100</maxWeakCount></stageParams>
  <featureParams>
    <maxCatCount>256</maxCatCount>
    <featSize>1</featSize></featureParams>
  <stageNum>10</stageNum>
  <stages>
    <!-- stage 0 -->
    <_>
      <maxWeakCount>2</maxWeakCount>
      <stageThreshold>-1.5330335497856140e-01</stageThreshold>
      <weakClassifiers>
        <_>
          <internalNodes>
            0 -1 11 600571903 -10496069 -1282557955 -1059 -262145
            -1073968133 -324014113 -2097201</internalNodes>
          <leafValues>
            -9.8995983600616455e-01 9.1818183660507202e-01</leafValues></_>
        <_>
          <internalNodes>
            0 -1 9 -540016641 -140906023 -712273537 -67636745 -375457281
            -2451061 -1884620081 -1073742849</internalNodes>
          <leafValues>
            -9.9167895317077637e-01 8.3665645122528076e-01</leafValues></_></weakClassifiers></_>
    <!-- stage 1 -->
    <_>
      <maxWeakCount>2</maxWeakCount>
      <stageThreshold>-1.5298676490783691e-01</stageThreshold>
      <weakClassifiers>
        <_>
          <internalNodes>
            0 -1 8 -270532609 -285286913 -547138145 -743964 -68288513
            -3153921 -71830273 -65793</internalNodes>
          <leafValues>
            -9.9186992645263672e-01 8.2758623361587524e-01</leafValues></_>
        <_>
          <internalNodes>
            0 -1 3 -6824961 -4213377 -1097076065 -69208161 -302141441
            -394307 -309613345 -136331270</internalNodes>
          <leafValues>
            -9.8057293891906738e-01 8.4844565391540527e-01</leafValues></_></weakClassifiers></_>
    <!-- stage 2 -->
    <_>
      <maxWeakCount>2</maxWeakCount>
      <stageThreshold>-2.3715534806251526e-01</stageThreshold>
      <weakClassifiers>
        <_>
          <internalNodes>
            0 -1 10 -1084229633 -100663561 -23593121 -263681 -539246593
            -68551241 -537399048 -1049345</internalNodes>
          <leafValues>
            -9.8000001907348633e-01 9.0740740299224854e-01</leafValues></_>
        <_>
          <internalNodes>
            0 -1 13 -786633 -4751393 -383782913 -1183847 -1176506377
            -4349975 -1326975755 -34605057</internalNodes>
          <leafValues>
            -9.9787932634353638e-01 7.4284464120864868e-01</leafValues></_></weakClassifiers></_>
    <!-- stage 3 -->
    <_>
      <maxWeakCount>2</maxWeakCount>
      <stageThreshold>-3.2418447732925415e-01</stageThreshold>
      <weakClassifiers>
        <_>
          <internalNodes>
            0 -1 17 -176292385 -33695313 -653918463 -1651253857
            -603194401 -594960102 -574370833 -8225</internalNodes>
          <leafValues>
            -9.6177059412002563e-01 7.7477478981018066e-01</leafValues></_>
        <_>
          <internalNodes>
            0 -1 1 -2434049 -2846246 1363480599 -79027822 140704511
            -67116149 -125713173 -2111269</internalNodes>
          <leafValues>
            -9.7704279422760010e-01 6.3758617639541626e-01</leafValues></_></weakClassifiers></_>
    <!-- stage 4 -->
    <_>
      <maxWeakCount>3</maxWeakCount>
      <stageThreshold>-1.1649794578552246e+00</stageThreshold>
      <weakClassifiers>
        <_>
          <internalNodes>
            0 -1 12 -144704513 -75768845 1375799829 -552525693 -71829298
            -154078753 -206835269 -4195397</internalNodes>
          <leafValues>
            -9.5770394802093506e-01 7.4887889623641968e-01</leafValues></_>
        <_>
          <internalNodes>
            0 -1 5 -3121 -611069157 -247074607 -37656301 -203293733
            -223633005 -85869569 -37751873</internalNodes>
          <leafValues>
            -9.1485154628753662e-01 7.6302492618560791e-01</leafValues></_>
        <_>
          <internalNodes>
            0 -1 14 -570425857 -176695945 -581838421 -1113678945
            -930419249 -69728127 -708185893 -1077947173</internalNodes>
          <leafValues>
            -9.8115307092666626e-01 7.0757597684860229e-01</leafValues></_></weakClassifiers></_>
    <!-- stage 5 -->
    <_>
      <maxWeakCount>2</maxWeakCount>
      <stageThreshold>-4.1574540734291077e-01</stageThreshold>
      <weakClassifiers>
        <_>
          <internalNodes>
            0 -1 18 -538968077 -2100741 -188286005 -1143087589
            -360062521 -907425521 -118887425 -1056785</internalNodes>
          <leafValues>
            -9.6855348348617554e-01 5.3435117006301880e-01</leafValues></_>
        <_>
          <internalNodes>
            0 -1 6 -524289 -147332715 -334785650 -7388877 1208834555
            -117311470 -598228833 -3162133</internalNodes>
          <leafValues>
            -9.5009654760360718e-01 5.9659183025360107e-01</leafValues></_></weakClassifiers></_>
    <!-- stage 6 -->
    <_>
      <maxWeakCount>2</maxWeakCount>
      <stageThreshold>-3.2057902216911316e-01</stageThreshold>
      <weakClassifiers>
        <_>
          <internalNodes>
            0 -1 0 -174850049 -587071745 -1207705889 -137245445
            -1555432033 -1143804994 -1047467077 -4194373</internalNodes>
          <leafValues>
            -9.1159135103225708e-01 7.2727274894714355e-01</leafValues></_>
        <_>
          <internalNodes>
            0 -1 7 -777667073 -250408623 391814653 -44101741 -209151809
            -86335173 -1407592212 -1093682529</internalNodes>
          <leafValues>
            -9.6662372350692749e-01 5.9101229906082153e-01</leafValues></_></weakClassifiers></_>
    <!-- stage 7 -->
    <_>
      <maxWeakCount>3</maxWeakCount>
      <stageThreshold>-1.2605471611022949e+00</stageThreshold>
      <weakClassifiers>
        <_>
          <internalNodes>
            0 -1 15 -706748419 -548556305 -1188870691 -551577459
            -1181053189 -1716533083 -7356419 -266497</internalNodes>
          <leafValues>
            -9.4285714626312256e-01 5.9322035312652588e-01</leafValues></_>
        <_>
          <internalNodes>
            0 -1 4 -405799025 -490749693 566952523 -12015 -624297521
            -2045149021 -422604338 -1165</internalNodes>
          <leafValues>
            -9.2292881011962891e-01 5.9745973348617554e-01</leafValues></_>
        <_>
          <internalNodes>
            0 -1 19 -421529601 -430464587 -1714106019 -134248089
            -816991301 -343897720 -70705509 -2360657</internalNodes>
          <leafValues>
            -9.1514974832534790e-01 6.6639006137847900e-01</leafValues></_></weakClassifiers></_>
    <!-- stage 8 -->
    <_>
      <maxWeakCount>3</maxWeakCount>
      <stageThreshold>-1.2269642353057861e+00</stageThreshold>
      <weakClassifiers>
        <_>
          <internalNodes>
            0 -1 5 -49 -216423985 -114050097 -2943429 -67896397
            -215872613 -1145377861 -68158529</internalNodes>
          <leafValues>
            -8.8953489065170288e-01 7.2826087474822998e-01</leafValues></_>
        <_>
          <internalNodes>
            0 -1 2 -168296449 -1442957 -1055752722 -236519462 -251461701
            -2097045621 -815703182 -65</internalNodes>
          <leafValues>
            -9.0271866321563721e-01 6.3135659694671631e-01</leafValues></_>
        <_>
          <internalNodes>
            0 -1 20 -572523215 1897879611 -448619561 -5258753 -119293185
            -18808678 -124011791 -1316663</internalNodes>
          <leafValues>
            -9.6878600120544434e-01 6.1302924156188965e-01</leafValues></_></weakClassifiers></_>
    <!-- stage 9 -->
    <_>
      <maxWeakCount>2</maxWeakCount>
      <stageThreshold>-4.4288894534111023e-01</stageThreshold>
      <weakClassifiers>
        <_>
          <internalNodes>
            0 -1 21 -707788801 -776739617 -1585198943 1939076079
            -504892417 -761031749 -436471335 -5393</internalNodes>
          <leafValues>
            -9.2032688856124878e-01 4.9367088079452515e-01</leafValues></_>
        <_>
          <internalNodes>
            0 -1 16 -67153025 -750545737 1919005135 -11802277 -822636545
            -139221845 -880026705 -570426453</internalNodes>
          <leafValues>
            -9.3655985593795776e-01 5.1993995904922485e-01</leafValues></_></weakClassifiers></_></stages>
  <features>
    <_>
      <rect>
        0 7 5 4</rect></_>
    <_>
      <rect>
        1 13 6 3</rect></_>
    <_>
      <rect>
        2 8 3 5</rect></_>
    <_>
      <rect>
        4 10 5 1</rect></_>
    <_>
      <rect>
        5 7 1 2</rect></_>
    <_>
      <rect>
        6 0 6 6</rect></_>
    <_>
      <rect>
        6 13 2 2</rect></_>
    <_>
      <rect>
        8 8 3 1</rect></_>
    <_>
      <rect>
        8 16 2 1</rect></_>
    <_>
      <rect>
        9 4 3 6</rect></_>
    <_>
      <rect>
        10 8 2 1</rect></_>
    <_>
      <rect>
        10 14 2 1</rect></_>
    <_>
      <rect>
        11 6 4 3</rect></_>
    <_>
      <rect>
        11 7 2 1</rect></_>
    <_>
      <rect>
        12 11 3 2</rect></_>
    <_>
      <rect>
        12 15 3 2</rect></_>
    <_>
      <rect>
        13 5 2 3</rect></_>
    <_>
      <rect>
        13 10 3 3</rect></_>
    <_>
      <rect>
        15 7 3 4</rect></_>
    <_>
      <rect>
        15 9 1 1</rect></_>
    <_>
      <rect>
        15 14 2 1</rect></_>
    <_>
      <rect>
        16 9 2 5</rect></_></features></cascade>
</opencv_storage>
